INDEX,0,1,2,3,4,5,6,7,8,9,10,11,12,13,14,15,16,17,18,19,20,21,22,23,24,25,26,27,28,29,30,31,32,33,34,35,36,37,38,39,40,41,42,43,44,45,46,47,48,49,50,51,52,53,54,55,56,57,58,59,60,61,62,63,64,65,66,67,68,69,70,71,72,73,74,75,76,77,78,79,80,81,82,83,84,85,86,87,88,89,90,91,92,93,94,95,96,97,98,99
AC_1,-32.87467575073242,41.78092575073242,-19.614582061767578,-81.99250793457031,11.571293830871582,90.70089721679688,-2.9897024631500244,-3.1801414489746094,-61.12368392944336,31.579843521118164,26.47449493408203,46.08848571777344,5.244370460510254,26.748825073242188,-17.309690475463867,-6.1633710861206055,55.71357727050781,66.82868957519531,-11.008068084716797,4.317181587219238,-16.390968322753906,40.50094223022461,-90.88124084472656,46.120750427246094,42.27254867553711,-22.440553665161133,17.115882873535156,17.1231746673584,-18.33118438720703,24.09944725036621,63.05894470214844,38.902278900146484,-67.60076904296875,-0.5328385829925537,-23.087003707885742,15.923056602478027,-48.870201110839844,42.64884948730469,8.231552124023438,26.648073196411133,75.08399963378906,-0.2982354164123535,24.380577087402344,26.692201614379883,-55.604164123535156,-9.333287239074707,-20.828271865844727,-69.33869934082031,11.102609634399414,-28.365474700927734,-74.69082641601562,-36.029823303222656,-39.33371353149414,-42.0185546875,11.95703125,-31.22603416442871,-58.46794509887695,59.44706344604492,-47.200321197509766,-65.73883056640625,41.26893615722656,-8.999039649963379,43.07744598388672,38.82234191894531,-51.89771270751953,-34.02702331542969,2.259958267211914,-7.998432159423828,-43.67762756347656,44.09011459350586,-17.233688354492188,-20.542634963989258,26.40302276611328,21.623565673828125,62.129180908203125,-16.63846206665039,-41.12570571899414,40.640926361083984,-45.403656005859375,73.08351135253906,-42.23066329956055,11.220208168029785,-12.532938003540039,28.735950469970703,58.80774688720703,-29.61185646057129,34.8568000793457,5.4865522384643555,59.6715087890625,-8.723997116088867,44.21186065673828,-40.90129852294922,5.385429382324219,31.619224548339844,-19.74106216430664,29.10297393798828,40.12954330444336,9.115853309631348,29.397014617919922,29.39141273498535
AC_2,-17.178447723388672,38.787628173828125,-25.136913299560547,-81.98200225830078,13.2250394821167,74.06839752197266,-7.649796009063721,4.2759480476379395,-43.22441101074219,22.939586639404297,35.373531341552734,51.75570297241211,-2.8639373779296875,14.497140884399414,-30.351085662841797,-1.532907485961914,80.00567626953125,49.135597229003906,0.8360892534255981,0.8506419658660889,-0.34055519104003906,45.847503662109375,-84.04170227050781,30.96282196044922,31.790468215942383,-29.492664337158203,-6.596454620361328,11.910377502441406,-10.658021926879883,39.049957275390625,70.64580535888672,27.930370330810547,-54.263858795166016,-8.115484237670898,-12.996789932250977,-0.12051200866699219,-54.633270263671875,53.15962600708008,17.41584587097168,27.02891731262207,54.07722473144531,18.303556442260742,21.25101089477539,27.679527282714844,-48.607269287109375,-0.8375072479248047,-14.582361221313477,-60.830352783203125,2.493107557296753,-35.15607452392578,-75.93011474609375,-30.890514373779297,-33.88905334472656,-48.63056182861328,24.257680892944336,-33.353294372558594,-62.18561935424805,53.67120361328125,-37.99000549316406,-51.346832275390625,34.545711517333984,2.8565917015075684,23.824024200439453,29.823986053466797,-51.58296203613281,-33.23685073852539,1.989919662475586,-10.123637199401855,-28.80699920654297,39.65258026123047,10.401277542114258,-11.227041244506836,8.840139389038086,24.366252899169922,54.31649398803711,-2.236114501953125,-51.47987747192383,32.65184783935547,-58.01525115966797,73.9004135131836,-29.999052047729492,-11.312751770019531,-18.613754272460938,27.168298721313477,43.72885513305664,-25.306133270263672,37.495361328125,-4.992187023162842,31.41544532775879,-19.859066009521484,35.772705078125,-21.67386245727539,9.016068458557129,31.013492584228516,-18.141490936279297,16.018983840942383,24.429359436035156,12.53863525390625,14.621455192565918,30.81256675720215
AC_3,-13.248123168945312,38.425079345703125,-22.839157104492188,-85.43009948730469,14.721185684204102,69.67567443847656,-11.163610458374023,2.67966365814209,-45.689422607421875,25.362699508666992,32.88571548461914,48.45090866088867,-5.081117630004883,14.208158493041992,-39.43501663208008,-4.726964950561523,77.04861450195312,47.070411682128906,-2.085862159729004,6.0659074783325195,-2.3124427795410156,42.60714340209961,-80.69506072998047,28.317874908447266,30.927879333496094,-20.943803787231445,-3.814821243286133,18.179685592651367,-4.109708786010742,34.61850357055664,65.21255493164062,32.025482177734375,-53.34262466430664,-3.236539840698242,-14.988937377929688,-0.47266483306884766,-50.98783493041992,55.56064224243164,20.427001953125,30.921340942382812,44.346256256103516,13.19187068939209,15.0155029296875,34.987876892089844,-49.11374282836914,-5.876790523529053,-10.986976623535156,-59.34064483642578,0.2687246799468994,-36.68791198730469,-78.50078582763672,-35.93878173828125,-36.80059051513672,-44.738948822021484,21.16079330444336,-30.550350189208984,-56.07843780517578,59.36511993408203,-32.151123046875,-44.91721725463867,28.823143005371094,10.001123428344727,16.77434730529785,28.203887939453125,-54.35980987548828,-28.910507202148438,8.50536823272705,-6.324749946594238,-27.71586036682129,42.182281494140625,3.212282180786133,-7.555461883544922,11.755091667175293,31.126781463623047,44.65119934082031,-6.267014503479004,-51.37205505371094,34.6184196472168,-51.05384826660156,76.55508422851562,-31.184255599975586,-0.049809932708740234,-10.275708198547363,23.571334838867188,46.04894256591797,-21.59815788269043,34.237091064453125,-5.642408847808838,32.640716552734375,-24.6968994140625,32.1318359375,-24.398561477661133,7.1932373046875,40.605430603027344,-18.265541076660156,9.707359313964844,28.433332443237305,4.952023506164551,14.46604061126709,31.053590774536133
AC_4,-13.6162109375,45.14596176147461,-23.978015899658203,-84.40674591064453,17.503965377807617,79.02957153320312,-10.07331371307373,9.769758224487305,-39.37986755371094,20.20240020751953,31.18840789794922,50.87336730957031,-2.4838333129882812,17.693967819213867,-30.99352264404297,-5.978204727172852,78.81920623779297,48.42932891845703,-9.905878067016602,5.335430145263672,-2.1296825408935547,37.12389373779297,-83.05294799804688,26.981014251708984,34.18021011352539,-22.617523193359375,-5.960010528564453,18.05601692199707,-4.747152328491211,39.69938659667969,70.72149658203125,29.69195556640625,-53.12206268310547,2.4526305198669434,-12.63493824005127,3.3969478607177734,-50.964759826660156,48.73316955566406,19.773155212402344,35.983741760253906,48.64297866821289,15.915324211120605,20.052425384521484,32.148529052734375,-46.825130462646484,-1.4526643753051758,-11.407268524169922,-57.34011459350586,-2.4350485801696777,-31.41423797607422,-69.2717514038086,-33.036865234375,-34.84329605102539,-46.197418212890625,17.353334426879883,-29.074100494384766,-56.518951416015625,62.90320587158203,-32.36280822753906,-38.71597671508789,27.80817985534668,13.107710838317871,20.90777015686035,25.185386657714844,-51.06808853149414,-29.532629013061523,8.102739334106445,-8.522098541259766,-20.903671264648438,40.088096618652344,1.689889907836914,-7.830110549926758,9.2859468460083,34.177711486816406,48.991607666015625,-11.425270080566406,-50.94032669067383,34.584754943847656,-48.57545471191406,77.50564575195312,-25.925064086914062,-1.4803118705749512,-8.578445434570312,25.647476196289062,43.67472839355469,-24.808788299560547,36.01926040649414,-4.578000545501709,32.50536346435547,-23.281156539916992,29.657989501953125,-21.404333114624023,14.21929931640625,29.68661880493164,-16.72060775756836,15.042770385742188,30.476396560668945,-2.928650140762329,3.9541850090026855,34.77350997924805
AC_5,-12.107794761657715,49.54282760620117,-20.135650634765625,-83.67523193359375,17.040119171142578,83.44080352783203,-10.067057609558105,9.379169464111328,-36.884681701660156,20.512590408325195,29.955678939819336,45.70011901855469,1.256540298461914,17.362266540527344,-30.821117401123047,-4.065330982208252,81.68448638916016,47.31794738769531,-13.078876495361328,13.511762619018555,0.18184661865234375,35.572532653808594,-78.59693908691406,26.474353790283203,26.574424743652344,-22.473167419433594,-5.182435989379883,18.707717895507812,-4.425148010253906,33.94538879394531,73.06546020507812,27.254730224609375,-54.57595443725586,7.619708061218262,-12.589576721191406,0.24292945861816406,-52.18975067138672,48.994564056396484,18.938018798828125,36.023658752441406,48.52973556518555,11.767157554626465,19.25900650024414,38.424251556396484,-43.95127868652344,1.3743095397949219,-10.012569427490234,-55.82740020751953,-0.45240139961242676,-34.54505920410156,-71.91984558105469,-33.2339973449707,-30.330791473388672,-52.441593170166016,11.249086380004883,-35.42534637451172,-59.09945297241211,60.039642333984375,-33.78467559814453,-44.77629852294922,27.67455291748047,19.24404525756836,29.104267120361328,31.66359519958496,-46.348594665527344,-24.266767501831055,7.313013076782227,-3.5137805938720703,-13.408271789550781,41.15842819213867,1.0932531356811523,-5.211724758148193,8.681560516357422,31.95061492919922,46.34052276611328,-13.342361450195312,-50.67902755737305,29.48600196838379,-46.38616180419922,79.46328735351562,-28.069913864135742,1.301971435546875,-6.591953277587891,27.142242431640625,43.79765319824219,-20.24262046813965,41.827919006347656,-3.5616917610168457,27.98431396484375,-17.91360092163086,27.213666915893555,-24.446874618530273,15.052212715148926,25.10863494873047,-11.88083267211914,10.387146949768066,32.57670593261719,-6.014969825744629,7.015260696411133,38.15234375
AC_6,-13.636792182922363,53.94899368286133,-25.139480590820312,-84.89002227783203,19.899137496948242,83.93404388427734,-5.510575294494629,15.860942840576172,-34.507816314697266,16.774633407592773,26.470714569091797,46.926883697509766,5.476984977722168,15.986431121826172,-30.541217803955078,-4.616004467010498,80.88134002685547,47.379417419433594,-13.747509956359863,10.512778282165527,-1.9075279235839844,32.6900634765625,-77.91719818115234,26.46063232421875,29.51543617248535,-26.92601776123047,-7.897954940795898,20.716739654541016,-8.391792297363281,37.34569549560547,74.55426025390625,22.233715057373047,-51.27463912963867,8.214738845825195,-14.378808975219727,0.457977294921875,-48.4351806640625,45.125038146972656,18.226669311523438,34.53545379638672,51.6632080078125,3.413846969604492,17.438053131103516,34.116920471191406,-44.05110168457031,0.9459495544433594,-15.385347366333008,-54.503482818603516,-2.0444750785827637,-34.179290771484375,-71.25474548339844,-35.329002380371094,-27.853816986083984,-49.867332458496094,10.067480087280273,-29.458755493164062,-56.8957633972168,64.98014831542969,-32.783592224121094,-39.938270568847656,28.4566593170166,22.211952209472656,31.08024787902832,38.4075813293457,-52.03236389160156,-21.174068450927734,2.1001129150390625,-8.337784767150879,-16.16039276123047,39.60129928588867,1.603672981262207,-1.8128972053527832,8.54647445678711,37.14689636230469,41.83294677734375,-14.100494384765625,-50.162940979003906,27.438255310058594,-45.0276985168457,79.4944839477539,-24.495229721069336,3.884807825088501,-6.335207939147949,30.18274688720703,41.640785217285156,-23.727519989013672,43.45213317871094,-2.086759328842163,31.06090545654297,-22.329391479492188,27.883607864379883,-24.347984313964844,13.029168128967285,22.44135284423828,-13.803128242492676,10.095325469970703,30.34243392944336,-10.51124382019043,0.7198553085327148,37.79905319213867
AC_7,-9.894625663757324,55.14362716674805,-24.20703125,-85.8470458984375,24.959688186645508,82.07357788085938,-6.282124996185303,14.715906143188477,-27.606014251708984,16.775249481201172,27.086732864379883,42.145347595214844,6.501031875610352,19.360034942626953,-27.277620315551758,-4.644927978515625,80.04635620117188,48.57164764404297,-11.365862846374512,11.77641487121582,-0.9993019104003906,35.33326721191406,-72.37348175048828,30.717721939086914,30.085119247436523,-29.460716247558594,-13.729888916015625,18.55352783203125,-6.427921295166016,36.99696731567383,73.22297668457031,20.049718856811523,-53.32731628417969,9.3749361038208,-12.381952285766602,-3.078378677368164,-48.316043853759766,46.57691192626953,21.012941360473633,34.3520393371582,54.839412689208984,1.3979053497314453,16.85019874572754,35.833831787109375,-40.968162536621094,0.6010546684265137,-14.379085540771484,-53.6228141784668,-5.680293083190918,-35.80799865722656,-72.7773666381836,-33.775413513183594,-29.49736785888672,-57.024742126464844,9.236473083496094,-28.696380615234375,-60.58341979980469,63.207298278808594,-29.379512786865234,-38.62453079223633,27.28932762145996,25.39126968383789,28.429508209228516,36.21177673339844,-56.17979431152344,-18.943614959716797,-1.2580432891845703,-13.234763145446777,-10.918436050415039,41.280723571777344,1.7592964172363281,-1.4988350868225098,9.507034301757812,33.58433532714844,43.54461669921875,-19.99142837524414,-47.69598388671875,24.862655639648438,-41.14226150512695,84.04338073730469,-24.095718383789062,4.210916519165039,-5.6608171463012695,30.649974822998047,43.727108001708984,-19.57260513305664,46.465538024902344,-4.9455766677856445,29.031946182250977,-18.16366195678711,23.338703155517578,-30.063737869262695,16.329553604125977,23.247005462646484,-11.70545768737793,13.691516876220703,30.676387786865234,-12.693300247192383,6.131641387939453,39.018585205078125
AC_8,-7.578339099884033,55.57681655883789,-23.76673126220703,-91.58975982666016,22.911598205566406,81.11328887939453,-4.62131404876709,16.21862030029297,-24.224300384521484,16.949024200439453,28.265493392944336,41.59242630004883,7.277447700500488,21.29843521118164,-24.597881317138672,-2.234262466430664,81.07015991210938,49.121517181396484,-9.3128080368042,11.875848770141602,1.462005615234375,30.483203887939453,-66.82963562011719,30.113479614257812,31.915481567382812,-29.89370346069336,-16.464406967163086,19.05166244506836,-1.3817691802978516,37.21955108642578,73.64022827148438,16.4918270111084,-54.32803726196289,11.257795333862305,-8.088829040527344,-3.0679616928100586,-47.433799743652344,40.40149688720703,26.991985321044922,38.976524353027344,55.13324737548828,2.747668743133545,20.368501663208008,35.67139434814453,-38.249839782714844,-4.412896633148193,-12.27519416809082,-52.61258316040039,-6.886845111846924,-36.432830810546875,-74.11919403076172,-39.832763671875,-28.30767059326172,-58.61206817626953,7.894687652587891,-32.719970703125,-64.11600494384766,60.30072784423828,-31.782896041870117,-38.905494689941406,27.991012573242188,27.669292449951172,27.91545867919922,39.25004577636719,-51.08470916748047,-19.850038528442383,-1.154672622680664,-11.044946670532227,-11.690559387207031,40.79245376586914,0.8076276779174805,-0.40771055221557617,8.042678833007812,35.471134185791016,41.23468017578125,-19.85851287841797,-47.15310287475586,26.067569732666016,-38.61042785644531,79.76602172851562,-22.300127029418945,1.082000494003296,-8.163677215576172,31.41433334350586,41.494895935058594,-18.02338409423828,40.2850456237793,-0.7915627956390381,26.515275955200195,-18.915042877197266,26.99125099182129,-28.919824600219727,10.896781921386719,17.87375259399414,-10.083261489868164,17.072832107543945,31.479827880859375,-14.569524765014648,5.2385382652282715,41.794803619384766
AC_9,-8.03029727935791,54.8864860534668,-22.939598083496094,-87.64946746826172,25.906042098999023,79.4345932006836,-3.124023914337158,16.6462345123291,-26.432781219482422,17.45918846130371,25.778949737548828,44.642093658447266,5.710509300231934,20.56050682067871,-28.0252685546875,-2.024505138397217,81.34679412841797,48.36425018310547,-12.202303886413574,15.850173950195312,-1.1701622009277344,32.98869323730469,-66.90978240966797,30.654888153076172,34.37873458862305,-30.29507064819336,-15.588150978088379,18.865802764892578,-0.40644073486328125,38.488460540771484,76.44415283203125,14.902134895324707,-51.032005310058594,12.088400840759277,-8.48151683807373,-3.2596397399902344,-46.49851608276367,41.469905853271484,25.63849639892578,37.97848892211914,53.929481506347656,1.3803457021713257,14.591039657592773,37.24319839477539,-38.61804962158203,-2.6583588123321533,-11.293296813964844,-52.81309127807617,-6.818163871765137,-33.411651611328125,-73.19044494628906,-36.492950439453125,-31.117408752441406,-56.30274963378906,12.862730026245117,-29.163721084594727,-56.113059997558594,59.62117004394531,-29.827030181884766,-40.954193115234375,27.905017852783203,26.444660186767578,27.398893356323242,39.039222717285156,-49.16742706298828,-23.753515243530273,-3.5546131134033203,-13.124359130859375,-14.522890090942383,39.775596618652344,2.7748842239379883,3.037372589111328,11.070980072021484,34.59627151489258,43.89011001586914,-23.697431564331055,-50.75568389892578,24.673221588134766,-37.23847961425781,83.30171966552734,-19.73834991455078,-1.1358819007873535,-7.5130109786987305,32.60593795776367,43.505821228027344,-16.408145904541016,44.87147903442383,-6.90848445892334,25.86092758178711,-23.972579956054688,22.843257904052734,-28.554359436035156,11.604277610778809,19.16977882385254,-12.634782791137695,14.383956909179688,31.288616180419922,-15.576210021972656,4.761050701141357,39.53993225097656
AC_10,-5.830967903137207,59.66624450683594,-22.547260284423828,-86.6500015258789,23.063467025756836,77.13701629638672,-3.30958890914917,12.297666549682617,-30.059894561767578,17.073667526245117,24.977027893066406,42.71366882324219,6.947237014770508,18.3597412109375,-21.76162338256836,-3.9030990600585938,85.56249237060547,45.61426544189453,-8.005293846130371,16.241111755371094,-1.565176010131836,32.29935073852539,-68.25495910644531,29.22704315185547,34.03269958496094,-28.270742416381836,-13.97413444519043,20.70677375793457,-5.022222518920898,42.094818115234375,75.42033386230469,12.81082534790039,-53.92577362060547,12.564461708068848,-7.163454532623291,-5.356868743896484,-47.302799224853516,42.425079345703125,24.495738983154297,31.151426315307617,52.45722198486328,0.9195394515991211,15.68359375,36.44401931762695,-39.227317810058594,2.8990917205810547,-14.62556266784668,-51.89295196533203,-9.566925048828125,-30.925975799560547,-75.00410461425781,-39.031166076660156,-34.15846633911133,-60.49584197998047,7.784381866455078,-30.290124893188477,-58.78850173950195,61.712162017822266,-32.12480926513672,-36.46299743652344,27.76195526123047,28.16278076171875,30.1822509765625,36.837181091308594,-47.14514923095703,-18.81570053100586,-2.2590904235839844,-10.34533405303955,-16.984357833862305,40.90372848510742,3.4746932983398438,2.598491668701172,12.04820442199707,33.61744689941406,46.29063415527344,-23.22466278076172,-49.79606628417969,23.873769760131836,-37.5713005065918,82.87628936767578,-20.744279861450195,2.9793636798858643,-9.443326950073242,35.296417236328125,40.04800796508789,-21.058929443359375,41.83409881591797,-6.475529670715332,29.820959091186523,-20.103994369506836,19.170560836791992,-26.047622680664062,10.11005973815918,18.833473205566406,-11.599127769470215,13.490250587463379,30.965547561645508,-13.033174514770508,2.012798309326172,40.555389404296875
AC_11,-8.367412567138672,60.27572250366211,-23.47901153564453,-88.200439453125,23.27578353881836,75.88690948486328,-10.568852424621582,14.211118698120117,-31.324077606201172,21.254558563232422,28.897878646850586,45.14081954956055,3.3784494400024414,21.146347045898438,-22.952489852905273,-6.824648857116699,80.99371337890625,46.98957824707031,-8.537179946899414,16.444156646728516,1.3559608459472656,35.086700439453125,-73.3753662109375,29.694421768188477,32.2586669921875,-29.645923614501953,-12.916465759277344,21.75446319580078,-5.520164489746094,37.52473831176758,78.75145721435547,12.742223739624023,-49.21985626220703,8.844659805297852,-7.8311543464660645,-8.206531524658203,-45.05974578857422,41.934085845947266,21.82469940185547,33.72090148925781,54.89353561401367,4.552053928375244,14.073493957519531,35.222618103027344,-36.72620391845703,2.285795211791992,-14.528569221496582,-52.8216438293457,-4.9431257247924805,-32.97076416015625,-73.24485778808594,-39.835906982421875,-33.53706359863281,-56.39020538330078,12.946807861328125,-31.999488830566406,-56.58564376831055,63.816444396972656,-34.650657653808594,-40.77965545654297,31.467567443847656,26.630634307861328,30.248558044433594,39.10378646850586,-52.08478927612305,-25.318946838378906,1.75347900390625,-4.8017778396606445,-16.628742218017578,43.60676574707031,0.7913742065429688,6.323125839233398,6.340644359588623,32.49271011352539,50.9360237121582,-22.353273391723633,-53.29875946044922,23.690776824951172,-35.63711166381836,81.59500885009766,-20.86433982849121,1.3953418731689453,-11.420915603637695,36.30564880371094,43.319541931152344,-23.873401641845703,43.65830993652344,-7.072178840637207,29.26028823852539,-17.689441680908203,18.358150482177734,-28.49785041809082,12.495447158813477,22.53992462158203,-7.0107831954956055,17.44121551513672,33.04130172729492,-9.353954315185547,6.587187767028809,41.67038345336914
AC_12,-9.287737846374512,57.47971725463867,-23.396095275878906,-87.21857452392578,19.67498779296875,71.63214874267578,-10.78292465209961,15.518840789794922,-31.41202163696289,22.99151611328125,27.466964721679688,44.76060485839844,1.5214176177978516,20.055561065673828,-19.039443969726562,-10.210542678833008,83.33353424072266,51.52678680419922,-4.652041435241699,18.898128509521484,-1.2011260986328125,34.26251220703125,-74.23831939697266,26.057384490966797,31.56238555908203,-30.833026885986328,-12.789202690124512,21.162513732910156,-6.175079345703125,40.75932312011719,77.52847290039062,15.406938552856445,-50.62306594848633,7.015293598175049,-9.777804374694824,-7.278779983520508,-47.07252502441406,47.222389221191406,18.102386474609375,33.939056396484375,57.17007827758789,7.184290885925293,20.16977310180664,36.16114044189453,-38.508731842041016,4.756961822509766,-18.268213272094727,-51.45684051513672,-5.33507776260376,-30.68459129333496,-74.12490844726562,-34.229896545410156,-31.826190948486328,-57.721946716308594,12.43374252319336,-31.371944427490234,-52.451332092285156,65.2259521484375,-42.05236053466797,-39.8268928527832,33.09934616088867,27.39510726928711,26.992443084716797,36.61507034301758,-56.10222625732422,-24.519380569458008,4.359537124633789,-4.457910537719727,-23.50423240661621,46.48392105102539,1.6591119766235352,5.635328769683838,7.868697166442871,32.693233489990234,54.6290283203125,-23.12622833251953,-56.02491760253906,22.678451538085938,-34.74850082397461,80.03246307373047,-23.34548568725586,4.73750638961792,-8.447310447692871,40.78242111206055,37.767974853515625,-21.368057250976562,43.81462860107422,-10.068243026733398,35.18549346923828,-13.442416191101074,16.72402572631836,-25.789459228515625,11.192740440368652,23.731460571289062,-9.260066986083984,17.438261032104492,34.81169128417969,-4.230411052703857,5.352910041809082,40.633907318115234
AC_13,-7.796877861022949,57.31483459472656,-22.085811614990234,-85.48757934570312,21.820606231689453,72.88076782226562,-8.872505187988281,16.944564819335938,-31.98309326171875,26.509883880615234,30.91543960571289,47.157936096191406,-2.9880123138427734,20.381038665771484,-20.18610191345215,-15.444273948669434,83.00169372558594,51.495914459228516,-1.3059163093566895,21.001590728759766,1.7762031555175781,37.57830047607422,-77.60790252685547,29.132883071899414,32.91607666015625,-32.4854621887207,-12.072938919067383,21.917247772216797,-7.665822982788086,40.58234405517578,75.22480010986328,16.580066680908203,-53.921085357666016,6.81413459777832,-10.183988571166992,-8.188565254211426,-45.59733200073242,47.93421936035156,20.675464630126953,32.726287841796875,53.69599151611328,9.56208610534668,19.621463775634766,37.90140914916992,-40.14992904663086,2.183075428009033,-18.78724479675293,-53.18910217285156,-3.935997486114502,-37.390838623046875,-71.13612365722656,-36.15819549560547,-36.10603713989258,-55.76122283935547,14.624444961547852,-31.293861389160156,-52.677345275878906,69.58876037597656,-42.217063903808594,-41.478763580322266,31.58536148071289,24.820556640625,26.24280548095703,35.78899002075195,-53.83794403076172,-26.073869705200195,4.468292236328125,-6.142220497131348,-25.86504364013672,48.019798278808594,-1.1360139846801758,8.067930221557617,6.810635566711426,31.064075469970703,59.91191101074219,-21.730623245239258,-55.40332794189453,23.151988983154297,-35.76386642456055,82.81053924560547,-22.068069458007812,2.846013069152832,-6.065540313720703,38.88236618041992,42.78064727783203,-23.962684631347656,45.38711929321289,-9.842300415039062,34.23624038696289,-17.09311294555664,15.51809310913086,-28.433475494384766,8.032063484191895,26.975677490234375,-11.092596054077148,17.12299346923828,35.99088668823242,-1.3600845336914062,6.556661605834961,47.160552978515625
AC_14,-10.233428001403809,55.27021026611328,-23.32000732421875,-87.443603515625,22.216106414794922,69.24259185791016,-12.934113502502441,16.880294799804688,-35.94413757324219,28.531429290771484,31.946773529052734,42.79225540161133,-4.76542854309082,18.2907657623291,-19.850635528564453,-17.031719207763672,85.21145629882812,54.500526428222656,-0.7678365707397461,20.325429916381836,2.3426475524902344,41.73342514038086,-82.68621826171875,27.675100326538086,34.40109634399414,-36.78327560424805,-10.538999557495117,19.418163299560547,-10.86746597290039,43.60470199584961,72.84223175048828,20.08824920654297,-51.78087615966797,3.7501068115234375,-6.727751731872559,-13.953185081481934,-49.56922149658203,56.04104232788086,14.10529899597168,32.53919982910156,55.805274963378906,10.76597785949707,20.606964111328125,38.65442657470703,-41.501312255859375,0.352510929107666,-20.569990158081055,-50.88935089111328,-1.8448920249938965,-34.10226058959961,-72.57981872558594,-36.92045211791992,-36.516231536865234,-55.36763000488281,16.40682601928711,-30.01972198486328,-52.99241638183594,71.06781768798828,-49.74591064453125,-46.92103576660156,34.12134552001953,23.26327896118164,25.434810638427734,40.039634704589844,-53.92314910888672,-29.31732177734375,6.425685882568359,-5.95877742767334,-32.042659759521484,48.738380432128906,-0.7537269592285156,4.364304065704346,7.810521125793457,29.718055725097656,64.1098403930664,-18.532669067382812,-56.248504638671875,23.18195152282715,-38.25001525878906,81.10113525390625,-22.623430252075195,3.1323130130767822,-11.507979393005371,44.614105224609375,40.313350677490234,-25.865764617919922,42.2875862121582,-8.973511695861816,37.84201431274414,-15.779979705810547,14.229141235351562,-27.311294555664062,6.560094833374023,29.248184204101562,-8.759520530700684,19.703428268432617,40.056156158447266,4.120086669921875,8.036523818969727,43.30226135253906
AC_15,-9.334354400634766,58.16966247558594,-19.920974731445312,-87.71963500976562,24.185462951660156,68.86739349365234,-13.237634658813477,19.721879959106445,-35.25609588623047,32.12942886352539,33.78575897216797,41.06668472290039,-9.347038269042969,20.648475646972656,-17.699203491210938,-16.318801879882812,85.87174987792969,55.4793701171875,4.015118598937988,22.27297592163086,4.832181930541992,42.20393371582031,-80.48655700683594,23.207172393798828,33.19989013671875,-37.75086975097656,-11.466485977172852,17.864234924316406,-12.642555236816406,46.0781135559082,76.54396057128906,21.96941566467285,-55.41168975830078,0.006169795989990234,-8.392050743103027,-11.488410949707031,-51.01035690307617,57.541839599609375,12.342438697814941,32.003726959228516,54.55042266845703,11.824790954589844,19.395660400390625,36.60209274291992,-42.077423095703125,-0.5758414268493652,-25.47763442993164,-51.72571563720703,-2.108980178833008,-34.44984436035156,-70.94088745117188,-38.63626480102539,-34.14338302612305,-53.186744689941406,16.29043197631836,-26.923450469970703,-50.270668029785156,70.00230407714844,-54.62781524658203,-47.09918975830078,36.625675201416016,23.53211212158203,26.930192947387695,40.852027893066406,-51.02742004394531,-32.251033782958984,8.875250816345215,-8.082535743713379,-35.091304779052734,49.66501235961914,-2.6960067749023438,6.823426246643066,6.792914390563965,24.05376434326172,68.78207397460938,-13.104913711547852,-57.56575012207031,24.46590232849121,-36.56029510498047,80.74238586425781,-20.75202178955078,3.7084245681762695,-11.48675537109375,45.15939712524414,46.203948974609375,-27.412458419799805,43.8251953125,-5.452686786651611,41.13493728637695,-15.833465576171875,13.757011413574219,-31.1734676361084,5.428932189941406,32.1691780090332,-12.441088676452637,23.194622039794922,40.73763656616211,6.993581771850586,11.316415786743164,42.44712829589844
AC_16,-14.360780715942383,55.65144348144531,-18.888721466064453,-88.82695007324219,24.583375930786133,66.74723052978516,-16.370473861694336,19.94272232055664,-37.216468811035156,35.11271286010742,36.65388488769531,40.44243240356445,-11.610808372497559,21.354896545410156,-20.746212005615234,-17.708839416503906,88.83474731445312,56.85679244995117,4.365695476531982,21.772315979003906,6.952323913574219,48.814327239990234,-85.39078521728516,24.019977569580078,32.26837158203125,-39.6732063293457,-13.116841316223145,18.097911834716797,-14.872547149658203,50.54913330078125,78.31055450439453,25.68499755859375,-54.76803207397461,-2.3264033794403076,-4.8891496658325195,-12.493918418884277,-53.16709518432617,56.50364303588867,12.666426658630371,33.99513626098633,54.394805908203125,14.802358627319336,24.819992065429688,37.79104995727539,-40.775081634521484,-0.8511457443237305,-26.477190017700195,-52.65387725830078,-2.137251377105713,-31.719579696655273,-71.78108215332031,-36.15521240234375,-33.304954528808594,-50.029212951660156,17.02366828918457,-24.639188766479492,-53.69154357910156,72.92927551269531,-55.91319274902344,-50.81475067138672,36.40513610839844,23.581714630126953,28.440879821777344,48.07672882080078,-52.32354736328125,-35.21142578125,8.403326034545898,-4.394077301025391,-38.03477478027344,55.74754333496094,-2.019102096557617,4.70261287689209,8.37629508972168,24.141414642333984,72.99581146240234,-10.999865531921387,-60.29219055175781,27.411617279052734,-34.05281066894531,75.52165222167969,-24.813888549804688,2.323859691619873,-14.27171516418457,46.88090133666992,47.804569244384766,-33.12458801269531,43.91908264160156,-6.97922420501709,42.51390838623047,-13.986163139343262,15.570701599121094,-30.963573455810547,1.6683902740478516,31.65500831604004,-11.34494400024414,20.6457576751709,38.7921257019043,9.581809997558594,11.68463134765625,43.193763732910156
AC_17,-18.37102508544922,53.66319274902344,-17.54507827758789,-90.96114349365234,27.48381996154785,70.81707763671875,-16.256425857543945,20.747100830078125,-41.15242004394531,36.285484313964844,40.69983673095703,47.616424560546875,-9.794343948364258,23.41054916381836,-19.91636085510254,-20.013431549072266,91.92512512207031,56.712032318115234,7.761319160461426,26.057273864746094,7.7643890380859375,53.223358154296875,-95.57731628417969,22.101882934570312,36.869178771972656,-39.92961883544922,-12.502253532409668,16.70178985595703,-17.000144958496094,49.06507873535156,83.03713989257812,33.46310806274414,-56.003822326660156,-5.202285289764404,-7.74660062789917,-14.127130508422852,-57.55274200439453,57.073421478271484,5.837536334991455,34.22982406616211,51.084083557128906,16.44552230834961,26.71552276611328,38.234249114990234,-40.4353141784668,0.25856781005859375,-31.470596313476562,-58.110755920410156,-4.688848495483398,-31.37787628173828,-71.000244140625,-41.73360824584961,-32.346954345703125,-48.278465270996094,17.800277709960938,-27.135543823242188,-52.36215591430664,74.96487426757812,-64.58181762695312,-53.52977752685547,41.15607452392578,18.029277801513672,30.68016815185547,47.18112564086914,-53.24974822998047,-40.941001892089844,12.241369247436523,-5.474825859069824,-42.31612014770508,59.002281188964844,-7.108154296875,4.328948020935059,2.3261256217956543,18.2226619720459,75.63019561767578,-11.71990966796875,-66.1546630859375,28.919689178466797,-40.07651901245117,77.46495056152344,-20.09752655029297,-1.6013717651367188,-14.700640678405762,56.394447326660156,53.311729431152344,-40.06877136230469,48.62440490722656,-5.587327003479004,45.93903350830078,-15.444826126098633,17.238605499267578,-38.56072235107422,-3.618053436279297,34.11880111694336,-12.823121070861816,26.678016662597656,41.65142059326172,12.025787353515625,14.948762893676758,39.5599365234375
API_1,13.913228034973145,54.09994125366211,-50.0593376159668,-65.91595458984375,3.448134422302246,101.70137786865234,7.245718002319336,45.70111846923828,-32.4234619140625,11.539813995361328,25.157825469970703,26.962940216064453,-12.749532699584961,36.6615104675293,-16.550521850585938,11.344901084899902,72.54338073730469,46.45709228515625,-14.422884941101074,-5.664700984954834,-0.4302330017089844,31.141151428222656,-70.69621276855469,-16.325454711914062,59.93272399902344,-10.241033554077148,-7.788116455078125,17.484710693359375,33.969940185546875,31.346261978149414,62.05274200439453,22.44707489013672,-19.085289001464844,-12.382493019104004,-25.099292755126953,-37.49147415161133,-22.721088409423828,42.507774353027344,7.163694858551025,13.407014846801758,52.940521240234375,1.7182865142822266,17.029836654663086,-1.6927318572998047,-31.714704513549805,-0.3208284378051758,-4.275667667388916,-7.90878963470459,13.666150093078613,-36.60059356689453,-33.41046905517578,-99.64399719238281,-29.387470245361328,-70.68413543701172,24.378673553466797,-16.144441604614258,-59.97150802612305,62.080108642578125,-4.305661201477051,-1.4526138305664062,30.201560974121094,29.47140121459961,-9.82547378540039,5.793276786804199,-68.78890228271484,-33.816287994384766,48.42734909057617,-38.1129150390625,-38.977989196777344,45.85700607299805,-20.386737823486328,-16.675260543823242,12.019052505493164,50.300636291503906,27.684080123901367,-6.454407215118408,-40.53615188598633,12.868577003479004,-33.92410659790039,83.29470825195312,-33.83780288696289,5.58351993560791,0.16345715522766113,50.038047790527344,82.34127807617188,-1.712756633758545,24.72524642944336,-51.42115783691406,41.83857727050781,-17.807273864746094,46.3081169128418,-35.95766830444336,14.997814178466797,17.440553665161133,-4.267024517059326,21.67943000793457,33.25334167480469,-21.95386505126953,-20.423763275146484,68.1524429321289
API_2,10.571833610534668,57.213191986083984,-46.847442626953125,-62.557804107666016,-9.37790584564209,100.55763244628906,-0.5926885604858398,51.2907829284668,-34.006446838378906,7.903261184692383,33.12739181518555,20.692394256591797,-2.791792869567871,43.60028076171875,-17.04578399658203,14.735696792602539,62.832420349121094,38.631710052490234,-14.913119316101074,-8.705501556396484,-0.24122047424316406,23.31485366821289,-63.54419708251953,-25.426977157592773,53.1112174987793,-11.877021789550781,-4.433330535888672,21.242618560791016,29.833385467529297,24.457122802734375,64.66328430175781,16.070812225341797,-15.516460418701172,-14.875672340393066,-29.62152099609375,-36.69578170776367,-21.480499267578125,38.4281005859375,-1.6314178705215454,7.18269157409668,57.946998596191406,-3.0381317138671875,15.734479904174805,-4.8682098388671875,-30.57877540588379,2.3737688064575195,15.710786819458008,-6.5727643966674805,16.733131408691406,-31.3397216796875,-24.331836700439453,-91.98065948486328,-32.31890869140625,-78.23350524902344,22.815624237060547,-17.706829071044922,-57.18166732788086,62.26426315307617,3.3162574768066406,-1.0504779815673828,30.640695571899414,26.50863265991211,-5.444735050201416,2.005373954772949,-53.602298736572266,-27.6530818939209,46.4100456237793,-44.57866287231445,-32.15425491333008,38.99778366088867,-14.152472496032715,-7.913522243499756,2.6800665855407715,48.28022003173828,27.816516876220703,-14.381214141845703,-41.55353546142578,19.8020076751709,-36.89384841918945,76.84134674072266,-32.17422103881836,14.005029678344727,1.279270052909851,44.82876968383789,71.5849609375,-2.5000104904174805,22.620433807373047,-50.00263977050781,38.16636657714844,-22.768075942993164,50.687705993652344,-28.758983612060547,22.014083862304688,7.847604751586914,-0.25829219818115234,17.844938278198242,34.39006805419922,-12.41946792602539,-29.45937156677246,60.61479949951172
API_3,11.310425758361816,53.44652557373047,-50.47645568847656,-65.96251678466797,3.1019039154052734,102.41903686523438,5.026359558105469,42.616233825683594,-33.69172668457031,13.905793190002441,27.756799697875977,29.704008102416992,-15.158734321594238,36.72124099731445,-17.52149772644043,10.783647537231445,74.99839782714844,46.78559875488281,-15.45960807800293,-7.7868757247924805,-0.9354743957519531,33.304443359375,-75.33645629882812,-14.512115478515625,58.18076705932617,-13.325263977050781,-6.646839141845703,17.47188949584961,34.35974884033203,31.53864097595215,64.1303482055664,22.858980178833008,-20.551143646240234,-14.317797660827637,-25.619186401367188,-37.064979553222656,-23.280113220214844,45.859222412109375,6.947501182556152,12.922443389892578,54.918922424316406,2.9224586486816406,17.988862991333008,-1.4712867736816406,-32.661441802978516,-0.2829742431640625,-4.028695583343506,-10.952299118041992,12.689489364624023,-37.135948181152344,-37.25202941894531,-99.57919311523438,-31.020902633666992,-70.53639221191406,25.53958511352539,-17.711313247680664,-61.3342170715332,63.65420913696289,-5.790098190307617,-3.4922924041748047,32.2679328918457,28.272048950195312,-8.450345993041992,8.35115909576416,-71.35559844970703,-36.59897232055664,48.459503173828125,-35.31798553466797,-42.403602600097656,46.99627685546875,-20.254125595092773,-17.82517433166504,10.965066909790039,48.827518463134766,31.077199935913086,-5.3255767822265625,-45.376014709472656,15.585895538330078,-35.47452163696289,85.15472412109375,-34.04844284057617,7.0414042472839355,-1.747368335723877,51.371116638183594,83.76483917236328,-3.760220527648926,25.176925659179688,-52.630165100097656,43.25425720214844,-18.177412033081055,48.07943344116211,-34.84316635131836,15.162054061889648,19.502058029174805,-5.774634838104248,23.610876083374023,33.547332763671875,-19.35326385498047,-17.730609893798828,68.30199432373047
API_4,8.345101356506348,59.101409912109375,-46.59169387817383,-61.93232345581055,-8.797534942626953,101.95557403564453,-0.6649961471557617,53.650596618652344,-35.67292022705078,4.339635848999023,32.9630126953125,19.35988426208496,0.3211631774902344,42.13361358642578,-14.522706985473633,18.930667877197266,67.01825714111328,41.5787467956543,-13.286584854125977,-8.971843719482422,-2.137662887573242,25.367431640625,-68.85020446777344,-23.686275482177734,53.852012634277344,-15.504827499389648,-4.481662750244141,16.692710876464844,31.0860595703125,26.871326446533203,67.59886169433594,13.956161499023438,-13.63707447052002,-17.737689971923828,-31.801578521728516,-39.56318283081055,-22.35619354248047,42.21710205078125,2.892303943634033,5.218320846557617,57.804500579833984,-1.117340087890625,17.653202056884766,-5.141521453857422,-32.82121658325195,3.109738826751709,20.113122940063477,-9.065702438354492,18.70433807373047,-32.38490295410156,-23.68975067138672,-97.5560302734375,-32.844268798828125,-80.05126953125,22.8384952545166,-14.523484230041504,-62.51081848144531,66.93698120117188,0.9282159805297852,-2.2269020080566406,33.27593994140625,31.099529266357422,-5.016304016113281,2.93698787689209,-55.617919921875,-30.818357467651367,43.810813903808594,-40.89491653442383,-30.56004524230957,42.958492279052734,-13.973941802978516,-14.49929141998291,3.290436267852783,46.605796813964844,32.11906433105469,-8.376376152038574,-44.17400360107422,20.102359771728516,-41.71953582763672,79.38524627685547,-31.460508346557617,12.045583724975586,-0.35671722888946533,47.453216552734375,68.9130859375,-1.121631145477295,22.160491943359375,-51.78618621826172,39.25933837890625,-21.116512298583984,52.61720657348633,-31.8726749420166,24.2674560546875,5.262430191040039,-0.37216949462890625,16.766401290893555,31.892486572265625,-10.475497245788574,-28.223724365234375,62.4006233215332
API_5,10.44746208190918,51.559852600097656,-51.66349411010742,-69.58810424804688,6.239572525024414,101.5087890625,5.124382019042969,44.22119140625,-37.361297607421875,15.124563217163086,27.292495727539062,31.688491821289062,-17.16173553466797,37.57594680786133,-17.368471145629883,9.565828323364258,79.08970642089844,47.643898010253906,-15.725300788879395,-6.088240146636963,-2.053628921508789,37.77266311645508,-78.94935607910156,-11.824301719665527,62.185462951660156,-13.647294998168945,-7.420345306396484,15.483057975769043,35.97178649902344,35.90651321411133,63.371551513671875,24.58819007873535,-21.59845542907715,-16.415557861328125,-24.984769821166992,-36.62729263305664,-23.436546325683594,51.494117736816406,8.397127151489258,12.704309463500977,56.139244079589844,11.236787796020508,20.731037139892578,-1.837484359741211,-32.93537139892578,0.8964910507202148,-4.720169544219971,-14.321983337402344,12.761367797851562,-39.67787170410156,-41.08536911010742,-104.13016510009766,-32.22758483886719,-71.79678344726562,26.242399215698242,-17.184022903442383,-61.348289489746094,66.25154113769531,-10.552484512329102,-7.364479064941406,36.2938346862793,27.65086555480957,-9.014728546142578,6.172968864440918,-75.34852600097656,-38.190860748291016,50.19890594482422,-34.86773681640625,-45.91565704345703,50.35460662841797,-22.894020080566406,-19.71438980102539,11.080930709838867,48.1756591796875,32.50312805175781,-4.784121513366699,-48.37480545043945,14.544946670532227,-38.4118537902832,90.6776123046875,-35.035579681396484,8.333578109741211,-3.3787219524383545,52.07695770263672,84.23873138427734,-5.466554641723633,23.533279418945312,-52.99452209472656,44.07295227050781,-20.98027801513672,48.27630615234375,-39.920806884765625,14.525748252868652,22.004688262939453,-8.137055397033691,23.472192764282227,35.04640579223633,-17.82688331604004,-15.841880798339844,71.70186614990234
API_6,10.110756874084473,61.554847717285156,-44.10474395751953,-62.40801239013672,-2.053887128829956,104.56037902832031,-2.3591203689575195,55.599220275878906,-36.05683898925781,5.59526252746582,30.82840347290039,23.62737464904785,0.021515846252441406,44.04742431640625,-12.472793579101562,17.378992080688477,69.6995849609375,40.23689270019531,-15.58510684967041,-9.359214782714844,0.4228630065917969,28.407066345214844,-64.14439392089844,-26.06845474243164,61.20221710205078,-16.832202911376953,-6.8856048583984375,21.24991226196289,30.265457153320312,23.706159591674805,66.06668090820312,21.4598388671875,-12.967988014221191,-19.42302703857422,-37.09391784667969,-39.99253845214844,-22.591636657714844,45.438846588134766,3.698676586151123,7.042064666748047,61.23194885253906,-0.9771308898925781,15.621837615966797,-5.492591857910156,-33.01099395751953,3.3752074241638184,14.572498321533203,-10.077665328979492,15.803543090820312,-32.62023162841797,-23.500926971435547,-100.9339370727539,-30.131296157836914,-80.4210205078125,26.436859130859375,-15.951966285705566,-60.73539733886719,73.48509979248047,4.282218933105469,-0.36116981506347656,33.84415817260742,32.89710235595703,0.9231882095336914,5.721979141235352,-61.903663635253906,-35.303993225097656,46.03984832763672,-44.58343505859375,-29.35261344909668,40.589942932128906,-14.378629684448242,-14.901299476623535,4.955898761749268,47.025794982910156,27.442073822021484,-8.56024169921875,-44.701751708984375,19.137401580810547,-42.170074462890625,79.95590209960938,-33.40747833251953,12.350570678710938,3.470311164855957,49.95319747924805,75.25421142578125,-3.422229290008545,23.329975128173828,-51.82801055908203,38.716148376464844,-24.44071388244629,53.16228485107422,-33.77005386352539,25.524131774902344,5.389123916625977,-0.48749494552612305,16.004016876220703,30.97808837890625,-8.679590225219727,-29.242599487304688,68.64142608642578
API_7,8.128846168518066,50.15232849121094,-52.14571762084961,-71.05776977539062,5.672119140625,103.40182495117188,4.407526016235352,45.22887420654297,-39.65453338623047,16.661376953125,27.89017105102539,34.058162689208984,-20.154863357543945,38.68080139160156,-17.376422882080078,8.72476577758789,81.04838562011719,46.9720344543457,-16.9886417388916,-5.037005424499512,-2.7411022186279297,40.263187408447266,-83.55281829833984,-10.35998821258545,63.94610595703125,-14.309127807617188,-8.009990692138672,14.58804702758789,36.02783203125,37.61819076538086,63.917884826660156,28.177154541015625,-23.542713165283203,-17.783437728881836,-25.826396942138672,-37.849151611328125,-24.319936752319336,54.69639587402344,7.626786708831787,12.125162124633789,57.819278717041016,14.191574096679688,22.263172149658203,-0.3916454315185547,-34.66763687133789,1.6068735122680664,-5.687530040740967,-17.21323585510254,12.516475677490234,-41.89336395263672,-44.43809127807617,-105.87216186523438,-32.99207305908203,-73.78900146484375,27.850717544555664,-18.32152557373047,-62.52354049682617,67.41087341308594,-13.769964218139648,-10.442054748535156,40.301822662353516,26.75139808654785,-9.169997215270996,6.2030181884765625,-77.12762451171875,-40.534820556640625,52.20143508911133,-33.7532958984375,-49.37193298339844,53.2576904296875,-25.039636611938477,-20.121217727661133,10.295146942138672,47.72312927246094,35.58944320678711,-4.63405704498291,-52.43997573852539,16.79058837890625,-40.919307708740234,95.53280639648438,-36.668338775634766,8.255492210388184,-6.2317376136779785,53.11006546020508,85.80654907226562,-6.604862213134766,24.59668731689453,-52.359764099121094,46.2344856262207,-22.1068115234375,48.694122314453125,-41.046695709228516,12.412276268005371,24.99578857421875,-8.014596939086914,25.805194854736328,36.90473556518555,-16.490190505981445,-15.513216018676758,72.90631866455078
API_8,10.020106315612793,65.78353881835938,-42.1456413269043,-64.1182861328125,-1.8086977005004883,103.74602508544922,-1.857370376586914,59.15901565551758,-38.96233367919922,10.006538391113281,31.979814529418945,24.9262638092041,1.4441146850585938,47.3626823425293,-12.964251518249512,20.323835372924805,70.39013671875,42.8366813659668,-14.645591735839844,-9.979900360107422,4.70189094543457,31.084426879882812,-65.49429321289062,-27.302248001098633,62.38887023925781,-18.927043914794922,-4.539289474487305,20.897586822509766,28.574337005615234,29.864940643310547,64.52815246582031,17.21198272705078,-17.697757720947266,-22.48468017578125,-35.38141632080078,-41.880165100097656,-25.180904388427734,46.46393966674805,0.33936047554016113,6.416410446166992,62.16971206665039,-2.2605457305908203,20.41653823852539,-0.6035308837890625,-34.77420425415039,2.9065401554107666,18.600513458251953,-10.387063980102539,17.140254974365234,-29.477001190185547,-26.279935836791992,-98.65316009521484,-32.12066650390625,-81.98152923583984,25.012126922607422,-20.447572708129883,-64.30257415771484,73.67645263671875,5.545620918273926,-2.5328445434570312,37.976436614990234,32.9931640625,-1.521620750427246,5.250860214233398,-57.49643325805664,-34.81878662109375,45.17560577392578,-45.04981994628906,-26.18864631652832,43.67319869995117,-16.863109588623047,-14.449638366699219,1.775376558303833,47.77674865722656,26.496158599853516,-8.815557479858398,-47.70067596435547,21.379196166992188,-46.0769157409668,80.83802795410156,-35.49589920043945,9.181612014770508,1.7689647674560547,47.63888931274414,72.7974853515625,-5.553898334503174,22.342052459716797,-53.25949478149414,37.29307556152344,-23.97842788696289,54.61246871948242,-34.77505874633789,30.05446434020996,6.269798278808594,4.46574592590332,15.539360046386719,30.75153923034668,-16.10382080078125,-33.78497314453125,70.50149536132812
API_9,7.69431209564209,52.256839752197266,-52.76679992675781,-73.3221435546875,5.3916473388671875,106.13938903808594,3.5650081634521484,45.88493728637695,-44.77050018310547,17.709789276123047,29.025312423706055,37.66564178466797,-23.225723266601562,40.0615348815918,-18.396394729614258,6.588215351104736,84.01909637451172,47.43702697753906,-17.751907348632812,-3.9588255882263184,-1.3701248168945312,45.93202209472656,-88.82931518554688,-8.96655559539795,64.85234069824219,-14.068910598754883,-8.068275451660156,13.952777862548828,36.25688934326172,37.599971771240234,64.1419906616211,30.898386001586914,-25.113872528076172,-18.20722770690918,-26.134593963623047,-36.82429885864258,-24.142309188842773,57.02837371826172,7.753176212310791,11.867179870605469,58.55514907836914,16.856264114379883,25.60260009765625,-0.10809326171875,-34.98491668701172,0.6061162948608398,-7.3158416748046875,-20.372211456298828,12.32537841796875,-41.886436462402344,-49.108985900878906,-106.10626220703125,-33.487648010253906,-75.01847839355469,30.908498764038086,-19.187053680419922,-64.14436340332031,69.56013488769531,-17.804931640625,-12.501930236816406,41.83513259887695,24.758935928344727,-9.176409721374512,8.095100402832031,-78.14909362792969,-41.68348693847656,53.950157165527344,-32.178428649902344,-52.115379333496094,54.990760803222656,-25.564706802368164,-19.533611297607422,8.654176712036133,47.86439895629883,38.22266387939453,-2.6303963661193848,-56.856361389160156,19.880571365356445,-43.83818817138672,98.40287780761719,-37.85087203979492,10.108416557312012,-5.26309871673584,55.03495788574219,88.57719421386719,-7.060449123382568,27.274744033813477,-52.93019104003906,48.9028434753418,-22.050708770751953,48.509368896484375,-42.674983978271484,11.689976692199707,26.393213272094727,-9.173344612121582,26.575918197631836,40.528839111328125,-15.148207664489746,-15.482368469238281,72.42234802246094
API_10,9.73297119140625,65.12641906738281,-41.423370361328125,-65.20001983642578,-3.6419677734375,114.39511108398438,-6.011589050292969,57.592079162597656,-44.28840255737305,15.176519393920898,37.057960510253906,22.215442657470703,1.2988166809082031,45.023468017578125,-9.720794677734375,14.940536499023438,74.3861312866211,45.848167419433594,-9.967090606689453,-9.836478233337402,7.6570281982421875,35.539581298828125,-74.60088348388672,-27.394329071044922,67.48448181152344,-26.803926467895508,-5.022893905639648,21.593599319458008,33.896087646484375,28.850643157958984,63.396812438964844,25.495737075805664,-20.481924057006836,-20.371967315673828,-36.69026565551758,-43.35883331298828,-21.69470977783203,42.749786376953125,2.2081058025360107,1.4642009735107422,66.75364685058594,-5.34395694732666,22.854013442993164,-0.3878040313720703,-37.74681091308594,3.0343048572540283,17.596752166748047,-11.19375228881836,14.544943809509277,-36.06538009643555,-32.999481201171875,-106.75544738769531,-32.248313903808594,-80.5364761352539,20.753093719482422,-23.92546844482422,-65.69059753417969,76.26543426513672,3.284358024597168,-7.427772521972656,35.69975280761719,33.35261917114258,-2.1257762908935547,11.113580703735352,-60.310245513916016,-42.302146911621094,47.85189437866211,-47.76988220214844,-25.076377868652344,45.53803634643555,-15.79613971710205,-16.51006507873535,0.7526240348815918,48.277217864990234,21.131515502929688,-5.883637428283691,-50.09695816040039,28.412302017211914,-48.08340072631836,80.33531951904297,-33.208404541015625,6.107985496520996,2.545257568359375,51.90041732788086,72.9615478515625,-5.589469909667969,24.222862243652344,-57.340396881103516,38.80876541137695,-27.191082000732422,55.33686065673828,-33.12971496582031,31.360027313232422,9.560944557189941,4.524677753448486,13.432013511657715,32.98461151123047,-15.290145874023438,-29.377273559570312,73.59037780761719
API_11,3.253664016723633,52.1165885925293,-53.180274963378906,-74.17444610595703,5.467621803283691,107.62999725341797,3.6162338256835938,45.84968566894531,-46.724220275878906,21.244365692138672,31.664813995361328,40.16413116455078,-25.876373291015625,40.265140533447266,-20.168075561523438,4.728792667388916,87.01536560058594,48.65703201293945,-18.574037551879883,-5.615397930145264,-0.7041893005371094,46.948829650878906,-92.40679168701172,-8.964491844177246,64.25285339355469,-14.660774230957031,-8.10142707824707,15.147863388061523,36.040557861328125,38.781776428222656,64.74530029296875,33.87517547607422,-27.09096908569336,-19.775867462158203,-25.667789459228516,-36.356590270996094,-24.469947814941406,59.22901153564453,7.71330451965332,10.488466262817383,60.87272644042969,17.591670989990234,26.51873779296875,1.1799983978271484,-36.296165466308594,-0.33200645446777344,-7.83904504776001,-24.924470901489258,12.445655822753906,-41.780906677246094,-51.03559875488281,-107.48722839355469,-33.96653366088867,-76.32855987548828,31.67742919921875,-17.80028533935547,-65.35004425048828,71.44306945800781,-20.53376007080078,-15.772220611572266,44.34051513671875,24.577035903930664,-9.400805473327637,10.493535041809082,-78.7047119140625,-44.6757698059082,54.528141021728516,-31.459562301635742,-55.039798736572266,58.58740234375,-25.25153160095215,-21.892215728759766,8.387655258178711,49.13255310058594,41.165557861328125,-0.7041068077087402,-59.67436218261719,22.374462127685547,-46.22314453125,102.26898956298828,-39.17176055908203,12.511068344116211,-5.497718334197998,55.88692092895508,90.09457397460938,-8.84394359588623,29.185705184936523,-52.935035705566406,51.21758270263672,-22.95331573486328,50.17221450805664,-42.0980339050293,9.669234275817871,26.089616775512695,-8.533358573913574,26.698740005493164,42.46857452392578,-14.702299118041992,-16.52046775817871,72.68959045410156
API_12,8.103046417236328,65.53052520751953,-41.11656951904297,-67.7277603149414,1.586836814880371,112.9830322265625,-3.407766342163086,62.75025177001953,-44.74903106689453,14.00052261352539,39.076568603515625,27.9227237701416,3.076099395751953,42.091941833496094,-8.50131893157959,17.3468017578125,75.79478454589844,44.60112762451172,-13.676748275756836,-10.845982551574707,10.387001037597656,38.3724365234375,-75.57501983642578,-28.13684844970703,65.72551727294922,-25.482803344726562,-5.62354850769043,19.749839782714844,33.90260696411133,32.07244110107422,59.95249557495117,25.91954231262207,-23.22949981689453,-20.152942657470703,-36.027835845947266,-41.89122009277344,-23.06232261657715,45.24138641357422,4.272984504699707,4.263566970825195,66.6567153930664,-4.033107757568359,23.616355895996094,1.7317771911621094,-36.62872314453125,2.079709053039551,18.51393699645996,-14.285567283630371,17.170209884643555,-34.84807586669922,-33.92104721069336,-103.41328430175781,-31.8170223236084,-83.2684097290039,22.90300750732422,-24.375703811645508,-66.75726318359375,78.05168151855469,2.048757553100586,-9.303581237792969,39.28035354614258,32.83827209472656,-0.652379035949707,12.152753829956055,-61.858524322509766,-41.0362548828125,46.17107009887695,-44.481056213378906,-24.208513259887695,49.547752380371094,-15.434958457946777,-13.985563278198242,2.0980920791625977,47.007835388183594,25.57452392578125,-7.244027614593506,-51.596351623535156,25.577083587646484,-50.69594955444336,81.13420104980469,-31.361251831054688,7.795239448547363,2.015725612640381,51.4765739440918,73.18447875976562,-5.789519786834717,26.64226531982422,-54.3731689453125,38.057533264160156,-28.695659637451172,56.171043395996094,-31.589712142944336,29.37177848815918,7.831636428833008,3.997100830078125,15.221369743347168,35.895362854003906,-15.387431144714355,-30.945215225219727,71.34738159179688
API_13,2.4545764923095703,53.314697265625,-53.31242370605469,-75.47903442382812,7.045400619506836,108.40778350830078,4.500764846801758,44.37982940673828,-49.093929290771484,23.14065170288086,34.044578552246094,42.56586456298828,-27.41683578491211,40.02649688720703,-21.005767822265625,1.4178954362869263,90.87541198730469,50.07351303100586,-16.597440719604492,-6.865159034729004,0.5988502502441406,49.4758415222168,-97.7106704711914,-8.063986778259277,63.47705841064453,-15.773942947387695,-5.148435592651367,14.642629623413086,34.263492584228516,40.192378997802734,67.24127197265625,36.70723342895508,-28.383831024169922,-20.75606918334961,-25.498050689697266,-33.82331085205078,-26.921518325805664,62.17823028564453,5.376492023468018,11.306316375732422,62.83871078491211,19.350990295410156,28.527328491210938,1.5356674194335938,-37.796966552734375,-1.0277061462402344,-8.765318870544434,-26.09239959716797,12.408561706542969,-42.95172119140625,-54.05487823486328,-106.65235900878906,-36.826751708984375,-77.00900268554688,32.41069793701172,-17.82303810119629,-68.36628723144531,77.16981506347656,-22.434789657592773,-15.767101287841797,46.56156921386719,24.60616111755371,-9.240021705627441,11.35577392578125,-78.82037353515625,-45.60808181762695,53.79031753540039,-29.279020309448242,-59.810115814208984,59.32073974609375,-25.833494186401367,-20.67669677734375,8.548718452453613,48.766357421875,45.62931442260742,1.1527633666992188,-64.3078842163086,22.265199661254883,-49.62472152709961,104.4434814453125,-38.12662124633789,14.227522850036621,-4.221407890319824,58.92042541503906,91.01055908203125,-10.479207992553711,30.957077026367188,-53.845603942871094,54.47332000732422,-23.90987777709961,52.96438980102539,-43.73984909057617,8.346429824829102,30.025054931640625,-11.77839469909668,27.56615447998047,44.86279296875,-12.607142448425293,-13.067546844482422,73.15597534179688
API_14,8.507574081420898,67.56172180175781,-41.961334228515625,-66.22554016113281,1.0913548469543457,113.70368194580078,-5.627619743347168,63.40846252441406,-44.90509033203125,17.52615737915039,41.11524963378906,27.415481567382812,4.015293121337891,40.9229850769043,-9.814887046813965,14.165787696838379,78.52982330322266,44.168670654296875,-13.07121753692627,-11.35860538482666,11.75543212890625,43.19786071777344,-78.5802993774414,-28.765743255615234,71.17822265625,-32.44077682495117,-7.236446380615234,20.80972671508789,34.8738899230957,33.658172607421875,59.45286178588867,28.744277954101562,-26.86960220336914,-18.692127227783203,-34.81309509277344,-42.85279083251953,-22.35059356689453,46.16919708251953,7.208518981933594,1.8709297180175781,68.91239929199219,-5.616903305053711,26.129316329956055,2.1695919036865234,-39.14229202270508,-0.4189544916152954,18.906171798706055,-14.415739059448242,15.920967102050781,-36.167022705078125,-38.69084548950195,-105.53963470458984,-32.893070220947266,-86.19351959228516,20.1156005859375,-24.74971580505371,-67.05960083007812,80.59844207763672,3.809934616088867,-12.12259292602539,41.87653732299805,31.322837829589844,0.7157845497131348,14.662178993225098,-68.06857299804688,-44.492000579833984,46.526641845703125,-42.344505310058594,-26.233596801757812,49.78313446044922,-17.010087966918945,-18.194286346435547,2.620659828186035,48.83332824707031,23.255638122558594,-3.727011203765869,-51.73727798461914,27.636476516723633,-50.281578063964844,81.72772979736328,-33.57776641845703,6.709211349487305,1.9155292510986328,54.24873352050781,76.08709716796875,-8.289496421813965,25.25818634033203,-55.90719985961914,37.72871398925781,-29.394424438476562,57.99797821044922,-34.932830810546875,35.63981628417969,11.717148780822754,2.129688262939453,15.85257339477539,36.18754196166992,-17.30513572692871,-25.81674575805664,75.33305358886719
API_15,-1.4411640167236328,53.897830963134766,-53.584129333496094,-76.79411315917969,7.157870292663574,109.97462463378906,1.702138900756836,44.50859832763672,-51.221107482910156,27.36343002319336,35.87088394165039,48.99276351928711,-28.620784759521484,41.873714447021484,-21.02361297607422,0.6016421318054199,95.03327178955078,50.11663818359375,-15.223258972167969,-6.6793646812438965,-0.5535812377929688,49.29279327392578,-104.32583618164062,-7.703531265258789,62.39723205566406,-16.790451049804688,-2.7611236572265625,13.492502212524414,34.12502670288086,41.6092643737793,70.44388580322266,38.975990295410156,-28.315601348876953,-19.516569137573242,-23.850563049316406,-32.599639892578125,-28.314794540405273,63.06363296508789,6.5589118003845215,8.331043243408203,69.11760711669922,22.36292839050293,34.44935989379883,1.4322872161865234,-39.72599411010742,0.33318328857421875,-11.70899772644043,-26.67867088317871,13.409971237182617,-42.388450622558594,-56.6808967590332,-109.12242126464844,-37.437320709228516,-80.03240966796875,33.21826171875,-15.673595428466797,-73.06070709228516,79.01017761230469,-27.43091583251953,-19.847633361816406,51.028907775878906,23.481491088867188,-12.029913902282715,11.673796653747559,-79.89555358886719,-49.56709671020508,57.11660385131836,-25.847951889038086,-67.39117431640625,64.4521484375,-26.233875274658203,-23.388866424560547,9.559529304504395,51.928001403808594,48.533203125,2.1175503730773926,-68.84831237792969,25.225162506103516,-50.6962890625,110.23299407958984,-36.82899475097656,15.875292778015137,-3.9111385345458984,63.33612060546875,91.66271209716797,-11.139121055603027,33.69941329956055,-52.889339447021484,56.88429641723633,-20.704349517822266,53.71183395385742,-46.94940185546875,5.94028377532959,32.2487907409668,-10.27886962890625,28.675573348999023,46.1586799621582,-12.821226119995117,-12.228318214416504,72.78863525390625
API_16,7.360055923461914,69.40084838867188,-44.66957473754883,-71.68305206298828,4.068054676055908,115.2965316772461,-5.974470138549805,63.05074691772461,-46.17793273925781,18.662704467773438,43.37757873535156,31.85312271118164,2.400115966796875,40.25627136230469,-9.745290756225586,17.24578857421875,79.48829650878906,45.44818878173828,-12.739416122436523,-11.500350952148438,11.632301330566406,46.10837173461914,-83.07820129394531,-27.623382568359375,71.05122375488281,-28.492618560791016,-9.921932220458984,21.725196838378906,35.94623947143555,33.310577392578125,60.07537841796875,30.87714958190918,-27.29482650756836,-18.32208824157715,-36.260353088378906,-40.580657958984375,-27.726133346557617,47.20272445678711,7.187005519866943,4.433765411376953,72.24711608886719,-5.128911972045898,27.332874298095703,4.502971649169922,-40.2021598815918,0.048122286796569824,17.38546371459961,-17.611221313476562,15.399213790893555,-35.856929779052734,-42.745059967041016,-108.61368560791016,-32.7158203125,-86.67784881591797,21.91280746459961,-26.35257911682129,-71.25042724609375,84.24166107177734,3.819272994995117,-13.60467529296875,46.87518310546875,31.206579208374023,2.4629359245300293,18.026500701904297,-70.60871887207031,-45.92806625366211,45.65885925292969,-41.27802276611328,-28.525175094604492,51.21039962768555,-15.599945068359375,-19.34183692932129,1.1289005279541016,49.00336837768555,27.790985107421875,-1.3870067596435547,-54.29764175415039,28.114643096923828,-50.65895080566406,85.60376739501953,-32.64550018310547,6.332963943481445,-0.7130393981933594,53.15875244140625,77.78184509277344,-10.187724113464355,25.65174102783203,-52.98048782348633,40.21000289916992,-32.768707275390625,58.27129364013672,-35.4488639831543,31.626953125,11.825019836425781,1.5132784843444824,18.89279556274414,39.65281677246094,-16.081647872924805,-26.14197540283203,75.48322296142578
API_17,-4.929041862487793,54.12376403808594,-53.204559326171875,-78.07913208007812,8.680354118347168,109.55088806152344,2.5205535888671875,43.46503448486328,-54.130218505859375,27.420303344726562,37.15959548950195,51.90994644165039,-28.193708419799805,42.24271774291992,-19.25925064086914,0.4624302387237549,98.58142852783203,50.68636703491211,-15.604329109191895,-8.605021476745605,-0.4496307373046875,50.35521697998047,-109.09237670898438,-6.594179153442383,64.46490478515625,-17.357627868652344,-2.4173583984375,15.948909759521484,30.457077026367188,44.27113723754883,74.18389892578125,42.596435546875,-28.496864318847656,-22.082536697387695,-23.917644500732422,-30.70437240600586,-32.52061462402344,66.15771484375,4.856363773345947,7.131782531738281,71.25205993652344,23.026594161987305,37.122798919677734,1.4424781799316406,-42.801509857177734,0.7425622940063477,-11.308475494384766,-29.97216033935547,14.898433685302734,-44.54657745361328,-58.607643127441406,-108.54126739501953,-42.1321907043457,-83.74568176269531,35.08149337768555,-14.360368728637695,-77.0806655883789,84.12547302246094,-30.835010528564453,-24.626510620117188,52.94629669189453,25.297494888305664,-10.729499816894531,12.804071426391602,-81.90425109863281,-52.9976692199707,57.29484558105469,-25.223609924316406,-71.48439025878906,65.27367401123047,-27.254169464111328,-24.978187561035156,10.54348087310791,51.05036926269531,51.98066329956055,2.741215467453003,-72.01394653320312,24.62732696533203,-53.84825897216797,113.09147644042969,-34.69800567626953,19.13615608215332,-6.298892021179199,65.3216323852539,91.13251495361328,-12.000685691833496,34.90886688232422,-52.431396484375,59.47357177734375,-22.435169219970703,55.678123474121094,-47.811248779296875,4.32921028137207,34.54936218261719,-10.17978572845459,31.737472534179688,48.18885803222656,-10.0596923828125,-11.993009567260742,72.3884048461914
API_18,5.044927597045898,69.10325622558594,-46.36014938354492,-73.25794219970703,4.537998199462891,116.5950927734375,-6.931989669799805,62.044776916503906,-49.46525573730469,19.140216827392578,46.28923034667969,34.56245422363281,-0.4042835235595703,39.29922866821289,-10.461159706115723,17.547882080078125,83.29613494873047,46.28736877441406,-12.575690269470215,-12.068264961242676,10.152111053466797,51.15629959106445,-89.06329345703125,-27.437976837158203,70.32441711425781,-27.124637603759766,-10.375059127807617,21.085948944091797,37.380157470703125,36.23963928222656,63.205841064453125,30.852651596069336,-27.37049674987793,-17.663883209228516,-37.65367126464844,-39.327110290527344,-31.461441040039062,48.819236755371094,7.768282890319824,4.776622772216797,73.49821472167969,-2.569589614868164,30.078907012939453,4.272542953491211,-39.603267669677734,1.2430617809295654,17.909252166748047,-20.59613037109375,14.492204666137695,-36.26459503173828,-45.6338996887207,-111.47248840332031,-35.25019073486328,-84.24443054199219,20.383594512939453,-25.345020294189453,-74.67938995361328,85.093994140625,1.3972797393798828,-15.843509674072266,49.54988098144531,30.084644317626953,5.733381271362305,21.126789093017578,-76.42334747314453,-47.551490783691406,45.19282913208008,-39.2197151184082,-30.735464096069336,52.36417007446289,-16.09012222290039,-20.491127014160156,3.8090105056762695,52.2556037902832,32.34368896484375,0.3443765640258789,-57.97262191772461,32.57893753051758,-54.35776138305664,89.11029815673828,-31.894126892089844,6.546008110046387,-3.50850772857666,54.28294372558594,77.01469421386719,-12.438741683959961,27.2225341796875,-52.90407180786133,45.10438919067383,-31.588726043701172,57.225791931152344,-34.85679626464844,30.325719833374023,14.465835571289062,-0.3912668228149414,21.131938934326172,40.169227600097656,-15.592591285705566,-23.669559478759766,76.59605407714844
API_19,-7.413866996765137,53.92326736450195,-53.80516815185547,-78.64785766601562,8.163164138793945,109.5050277709961,1.669464111328125,42.12709426879883,-57.08268356323242,29.088062286376953,37.071022033691406,56.183876037597656,-28.566871643066406,45.132080078125,-19.151966094970703,-1.3886041641235352,101.06565856933594,51.69673156738281,-14.265406608581543,-9.149969100952148,-0.8006973266601562,53.680301666259766,-114.63455200195312,-4.612378120422363,64.84838104248047,-18.281837463378906,-3.4097328186035156,18.303165435791016,28.799713134765625,46.795082092285156,75.84972381591797,44.75889205932617,-28.279294967651367,-22.457746505737305,-22.72195816040039,-31.827476501464844,-34.72788619995117,67.65409088134766,4.382000923156738,6.752178192138672,71.90108489990234,24.52611541748047,41.218353271484375,1.1534233093261719,-44.98088073730469,2.0691347122192383,-13.273977279663086,-33.1594123840332,15.26537036895752,-44.457820892333984,-61.311553955078125,-110.88352966308594,-45.2109375,-86.91312408447266,38.179534912109375,-13.800334930419922,-79.102783203125,85.61756896972656,-31.760229110717773,-28.742191314697266,54.283660888671875,25.26364517211914,-8.436715126037598,12.875319480895996,-84.26331329345703,-56.5707893371582,59.00223922729492,-23.330242156982422,-73.48577880859375,64.29915618896484,-26.94684600830078,-25.827838897705078,10.316429138183594,52.338470458984375,53.360572814941406,3.119213819503784,-72.29579162597656,26.515308380126953,-58.22060012817383,117.67938232421875,-33.63105392456055,22.726547241210938,-8.630971908569336,69.33851623535156,91.46504974365234,-12.680876731872559,38.8743896484375,-52.364192962646484,64.5540542602539,-22.701648712158203,57.65630340576172,-49.09632873535156,5.516631126403809,37.98701095581055,-10.725940704345703,30.93352508544922,48.777259826660156,-9.56934928894043,-10.372480392456055,72.21540069580078
API_20,2.889220714569092,68.94073486328125,-47.64132308959961,-74.93350219726562,4.908405303955078,117.79234313964844,-9.875175476074219,62.25852966308594,-53.49127960205078,20.362573623657227,48.58042907714844,36.496185302734375,-2.038534164428711,39.72229766845703,-11.627164840698242,16.75404167175293,86.5230941772461,47.578399658203125,-12.352408409118652,-12.23770809173584,10.836341857910156,54.23228454589844,-94.65202331542969,-25.398530960083008,71.50108337402344,-29.71920394897461,-8.442955017089844,20.93682098388672,37.33213806152344,39.30503845214844,66.43962097167969,33.5780029296875,-30.302616119384766,-17.521446228027344,-36.9226188659668,-37.45717239379883,-31.380592346191406,53.28423309326172,7.333103179931641,6.178339004516602,75.44822692871094,0.8423328399658203,31.269750595092773,4.706230163574219,-43.02887725830078,2.7062697410583496,17.346904754638672,-24.311084747314453,15.769064903259277,-38.01774978637695,-48.49378204345703,-110.31348419189453,-37.42849349975586,-83.4434814453125,21.744617462158203,-27.912324905395508,-75.50382232666016,87.4449462890625,-3.4411230087280273,-19.224407196044922,51.12995147705078,29.569520950317383,6.682621955871582,22.96501350402832,-78.55009460449219,-49.46552276611328,45.1973991394043,-38.7657470703125,-33.197044372558594,53.54375457763672,-15.598065376281738,-21.231029510498047,4.018770217895508,50.410884857177734,36.35373306274414,0.6728157997131348,-61.28650665283203,34.76386260986328,-56.8916015625,92.16962432861328,-32.3333740234375,8.148488998413086,-3.0385236740112305,55.738338470458984,78.30024719238281,-17.644119262695312,27.6951847076416,-53.80768585205078,46.215087890625,-33.66288757324219,58.920658111572266,-34.942630767822266,31.55941390991211,17.389041900634766,-1.7147598266601562,21.709651947021484,40.616024017333984,-13.365033149719238,-22.597576141357422,75.613037109375
API_21,-10.243350982666016,55.932342529296875,-54.30896759033203,-81.59049224853516,10.887672424316406,111.4343032836914,2.473752975463867,40.77262496948242,-61.490989685058594,30.83849334716797,39.493534088134766,58.755672454833984,-27.70178985595703,48.08095932006836,-19.873870849609375,-2.5618553161621094,101.98245239257812,52.283607482910156,-13.490823745727539,-11.421073913574219,0.6625289916992188,54.488136291503906,-118.34581756591797,-4.772950172424316,65.67042541503906,-18.962209701538086,-5.386447906494141,20.1754150390625,26.121517181396484,48.974571228027344,78.77129364013672,47.40037536621094,-29.808948516845703,-21.292259216308594,-22.778610229492188,-31.297222137451172,-34.46159362792969,72.19621276855469,2.990239143371582,5.8835296630859375,70.85000610351562,24.059131622314453,43.54364776611328,2.9997406005859375,-48.31820297241211,2.419750213623047,-14.059454917907715,-34.896732330322266,14.267461776733398,-45.408241271972656,-64.30443572998047,-111.56338500976562,-47.13467788696289,-90.29763793945312,37.668907165527344,-14.954412460327148,-81.4443588256836,89.00848388671875,-32.10401153564453,-31.34893035888672,56.23377227783203,27.398868560791016,-8.574957847595215,15.246875762939453,-84.9671630859375,-59.82860565185547,58.672428131103516,-22.411422729492188,-78.51131439208984,66.15984344482422,-28.04670524597168,-25.14560317993164,8.808004379272461,54.31623077392578,56.53520965576172,3.478126049041748,-75.0421142578125,27.033828735351562,-61.81591796875,119.98265838623047,-31.857154846191406,24.304170608520508,-7.574767112731934,71.52489471435547,94.21012878417969,-12.801289558410645,41.09929656982422,-53.05438232421875,67.1629867553711,-22.5756778717041,57.148136138916016,-49.857635498046875,3.055753707885742,42.025150299072266,-9.299930572509766,31.920177459716797,48.203216552734375,-7.573416709899902,-11.257750511169434,74.86712646484375
API_22,0.5631618499755859,69.48812866210938,-48.8808708190918,-76.62559509277344,5.393231391906738,119.70128631591797,-10.420625686645508,62.91822814941406,-55.7452507019043,22.453468322753906,51.772029876708984,39.85281753540039,-3.9110212326049805,39.366275787353516,-11.9129638671875,15.015067100524902,89.33100128173828,48.65752029418945,-12.172861099243164,-12.754562377929688,10.985580444335938,57.37284851074219,-99.60287475585938,-23.676734924316406,71.24215698242188,-30.819900512695312,-8.280296325683594,21.608604431152344,36.70014953613281,42.12547302246094,68.74896240234375,35.972408294677734,-31.497676849365234,-18.42569351196289,-38.102996826171875,-37.61366653442383,-32.70431137084961,56.15225601196289,6.372654914855957,5.922367095947266,76.79850006103516,2.9281444549560547,32.65642547607422,4.617572784423828,-44.842674255371094,2.585695266723633,17.12868309020996,-27.82098960876465,16.067516326904297,-39.0649299621582,-50.968780517578125,-111.03536224365234,-38.67715835571289,-84.1011962890625,22.117008209228516,-28.746654510498047,-76.72003173828125,89.7086181640625,-6.414705276489258,-22.23786163330078,53.36878967285156,29.678611755371094,7.319345951080322,24.517017364501953,-80.59095001220703,-52.3308219909668,45.253780364990234,-38.228492736816406,-36.53451156616211,55.16404724121094,-15.430143356323242,-21.682125091552734,4.307106971740723,51.2967529296875,40.27053451538086,2.135571002960205,-64.82897186279297,37.652584075927734,-59.88874816894531,94.85391235351562,-32.19770812988281,8.321815490722656,-4.586380958557129,57.101016998291016,80.09943389892578,-19.13027000427246,29.760034561157227,-54.23827362060547,48.566322326660156,-34.5906982421875,60.555572509765625,-35.57581329345703,31.248477935791016,19.59020233154297,-2.043992757797241,22.37961196899414,42.21397399902344,-11.471855163574219,-21.347402572631836,76.07771301269531
